<?xml version="1.0"?>
<opencv_storage>
<cascade>
  <stageType>BOOST</stageType>
  <featureType>HAAR</featureType>
  <height>20</height>
  <width>20</width>
  <stageParams>
    <boostType>GAB</boostType>
    <minHitRate>9.9500000476837158e-01</minHitRate>
    <maxFalseAlarm>5.0000000000000000e-01</maxFalseAlarm>
    <weightTrimRate>9.4999999999999996e-01</weightTrimRate>
    <maxDepth>1</maxDepth>
    <maxWeakCount>100</maxWeakCount></stageParams>
  <featureParams>
    <maxCatCount>0</maxCatCount>
    <featSize>1</featSize>
    <mode>BASIC</mode></featureParams>
  <stageNum>20</stageNum>
  <stages>
    <!-- stage 0 -->
    <_>
      <maxWeakCount>2</maxWeakCount>
      <stageThreshold>1.8687336146831512e-01</stageThreshold>
      <weakClassifiers>
        <_>
          <internalNodes>
            0 -1 56 2.6955543085932732e-02</internalNodes>
          <leafValues>
            -7.4358975887298584e-01 9.5352888107299805e-01</leafValues></_>
        <_>
          <internalNodes>
            0 -1 54 4.2915314435958862e-02</internalNodes>
          <leafValues>
            -2.9638683795928955e-01 9.3046313524246216e-01</leafValues></_></weakClassifiers></_>
    <!-- stage 1 -->
    <_>
      <maxWeakCount>5</maxWeakCount>
      <stageThreshold>1.1633449047803879e-01</stageThreshold>
      <weakClassifiers>
        <_>
          <internalNodes>
            0 -1 12 9.7621753811836243e-02</internalNodes>
          <leafValues>
            -4.8181816935539246e-01 9.4909304380416870e-01</leafValues></_>
        <_>
          <internalNodes>
            0 -1 51 -7.2681337594985962e-02</internalNodes>
          <leafValues>
            8.7567538022994995e-01 -3.8993510603904724e-01</leafValues></_>
        <_>
          <internalNodes>
            0 -1 80 5.2509922534227371e-02</internalNodes>
          <leafValues>
            -4.6466305851936340e-01 8.3782291412353516e-01</leafValues></_>
        <_>
          <internalNodes>
            0 -1 132 -1.4319187030196190e-02</internalNodes>
          <leafValues>
            8.6407524347305298e-01 -2.6149079203605652e-01</leafValues></_>
        <_>
          <internalNodes>
            0 -1 198 -3.9306478574872017e-03</internalNodes>
          <leafValues>
            5.8867561817169189e-01 -4.7297099232673645e-01</leafValues></_></weakClassifiers></_>
    <!-- stage 2 -->
    <_>
      <maxWeakCount>8</maxWeakCount>
      <stageThreshold>-1.3262961804866791e-01</stageThreshold>
      <weakClassifiers>
        <_>
          <internalNodes>
            0 -1 9 1.3205645373091102e-03</internalNodes>
          <leafValues>
            -5.3284668922424316e-01 9.1716653108596802e-01</leafValues></_>
        <_>
          <internalNodes>
            0 -1 205 4.9444079399108887e-02</internalNodes>
          <leafValues>
            -3.5268700122833252e-01 8.6102175712585449e-01</leafValues></_>
        <_>
          <internalNodes>
            0 -1 77 -1.3275074958801270e-01</internalNodes>
          <leafValues>
            7.6251155138015747e-01 -3.8265702128410339e-01</leafValues></_>
        <_>
          <internalNodes>
            0 -1 115 7.9345643520355225e-02</internalNodes>
          <leafValues>
            -4.1546535491943359e-01 7.2177976369857788e-01</leafValues></_>
        <_>
          <internalNodes>
            0 -1 123 -2.1719560027122498e-02</internalNodes>
          <leafValues>
            8.5626173019409180e-01 -2.5753539800643921e-01</leafValues></_>
        <_>
          <internalNodes>
            0 -1 246 4.3582415673881769e-04</internalNodes>
          <leafValues>
            3.2249048352241516e-01 -5.8466523885726929e-01</leafValues></_>
        <_>
          <internalNodes>
            0 -1 221 -3.0299888923764229e-02</internalNodes>
          <leafValues>
            7.0390319824218750e-01 -2.7955138683319092e-01</leafValues></_>
        <_>
          <internalNodes>
            0 -1 101 7.5497687794268131e-03</internalNodes>
          <leafValues>
            3.1560954451560974e-01 -6.2089955806732178e-01</leafValues></_></weakClassifiers></_>
    <!-- stage 3 -->
    <_>
      <maxWeakCount>9</maxWeakCount>
      <stageThreshold>-1.7799761891365051e-01</stageThreshold>
      <weakClassifiers>
        <_>
          <internalNodes>
            0 -1 212 1.7694201320409775e-02</internalNodes>
          <leafValues>
            -1.6097560524940491e-01 9.2368191480636597e-01</leafValues></_>
        <_>
          <internalNodes>
            0 -1 59 1.8047824501991272e-02</internalNodes>
          <leafValues>
            -2.9919135570526123e-01 8.0134016275405884e-01</leafValues></_>
        <_>
          <internalNodes>
            0 -1 73 6.8393290042877197e-02</internalNodes>
          <leafValues>
            -5.3052443265914917e-01 6.2159663438796997e-01</leafValues></_>
        <_>
          <internalNodes>
            0 -1 149 -1.9216790795326233e-02</internalNodes>
          <leafValues>
            5.9750598669052124e-01 -5.0869262218475342e-01</leafValues></_>
        <_>
          <internalNodes>
            0 -1 7 3.0858385562896729e-01</internalNodes>
          <leafValues>
            -3.7692767381668091e-01 5.9587866067886353e-01</leafValues></_>
        <_>
          <internalNodes>
            0 -1 43 4.9318037927150726e-03</internalNodes>
          <leafValues>
            -4.7080165147781372e-01 4.3170857429504395e-01</leafValues></_>
        <_>
          <internalNodes>
            0 -1 53 -2.2838143631815910e-02</internalNodes>
          <leafValues>
            6.8503248691558838e-01 -2.8215268254280090e-01</leafValues></_>
        <_>
          <internalNodes>
            0 -1 225 1.3518789783120155e-03</internalNodes>
          <leafValues>
            2.6250150799751282e-01 -6.3280165195465088e-01</leafValues></_>
        <_>
          <internalNodes>
            0 -1 235 -1.1484704446047544e-03</internalNodes>
          <leafValues>
            -7.4150526523590088e-01 2.0159918069839478e-01</leafValues></_></weakClassifiers></_>
    <!-- stage 4 -->
    <_>
      <maxWeakCount>10</maxWeakCount>
      <stageThreshold>-1.8865905702114105e-01</stageThreshold>
      <weakClassifiers>
        <_>
          <internalNodes>
            0 -1 217 8.5177803412079811e-03</internalNodes>
          <leafValues>
            -2.1481481194496155e-01 9.0408223867416382e-01</leafValues></_>
        <_>
          <internalNodes>
            0 -1 98 2.7495197951793671e-02</internalNodes>
          <leafValues>
            -2.8987193107604980e-01 7.9015779495239258e-01</leafValues></_>
        <_>
          <internalNodes>
            0 -1 60 4.9790028482675552e-02</internalNodes>
          <leafValues>
            -5.8015227317810059e-01 5.7032972574234009e-01</leafValues></_>
        <_>
          <internalNodes>
            0 -1 95 -1.6152955591678619e-02</internalNodes>
          <leafValues>
            6.0692286491394043e-01 -4.4235640764236450e-01</leafValues></_>
        <_>
          <internalNodes>
            0 -1 66 3.9394544437527657e-03</internalNodes>
          <leafValues>
            -3.4609451889991760e-01 5.7921928167343140e-01</leafValues></_>
        <_>
          <internalNodes>
            0 -1 208 -1.1796627659350634e-03</internalNodes>
          <leafValues>
            3.2763600349426270e-01 -5.4182815551757813e-01</leafValues></_>
        <_>
          <internalNodes>
            0 -1 139 -1.0349586606025696e-02</internalNodes>
          <leafValues>
            6.9958657026290894e-01 -2.9584702849388123e-01</leafValues></_>
        <_>
          <internalNodes>
            0 -1 186 2.5960947386920452e-03</internalNodes>
          <leafValues>
            -1.9960007071495056e-01 8.2873672246932983e-01</leafValues></_>
        <_>
          <internalNodes>
            0 -1 40 -2.8542974032461643e-03</internalNodes>
          <leafValues>
            -7.2717261314392090e-01 2.4133697152137756e-01</leafValues></_>
        <_>
          <internalNodes>
            0 -1 143 2.2891513071954250e-03</internalNodes>
          <leafValues>
            -4.0914434194564819e-01 3.3333534002304077e-01</leafValues></_></weakClassifiers></_>
    <!-- stage 5 -->
    <_>
      <maxWeakCount>12</maxWeakCount>
      <stageThreshold>-2.9961749911308289e-02</stageThreshold>
      <weakClassifiers>
        <_>
          <internalNodes>
            0 -1 81 1.2873224914073944e-02</internalNodes>
          <leafValues>
            -5.4054055362939835e-03 9.0906459093093872e-01</leafValues></_>
        <_>
          <internalNodes>
            0 -1 199 9.1120973229408264e-02</internalNodes>
          <leafValues>
            -1.4301426708698273e-01 7.8828990459442139e-01</leafValues></_>
        <_>
          <internalNodes>
            0 -1 50 -1.2043579481542110e-02</internalNodes>
          <leafValues>
            6.4036422967910767e-01 -4.1250798106193542e-01</leafValues></_>
        <_>
          <internalNodes>
            0 -1 58 -2.1060232073068619e-02</internalNodes>
          <leafValues>
            6.8360555171966553e-01 -3.0422505736351013e-01</leafValues></_>
        <_>
          <internalNodes>
            0 -1 115 4.6274006366729736e-02</internalNodes>
          <leafValues>
            -5.4567414522171021e-01 4.3616977334022522e-01</leafValues></_>
        <_>
          <internalNodes>
            0 -1 187 -8.2266731187701225e-03</internalNodes>
          <leafValues>
            7.4664086103439331e-01 -3.1504306197166443e-01</leafValues></_>
        <_>
          <internalNodes>
            0 -1 89 -1.7387483268976212e-02</internalNodes>
          <leafValues>
            8.8485693931579590e-01 -1.5931116044521332e-01</leafValues></_>
        <_>
          <internalNodes>
            0 -1 162 -1.6156895086169243e-02</internalNodes>
          <leafValues>
            8.6094594001770020e-01 -2.0366194844245911e-01</leafValues></_>
        <_>
          <internalNodes>
            0 -1 215 -7.9023529542610049e-04</internalNodes>
          <leafValues>
            -4.3931302428245544e-01 3.4742730855941772e-01</leafValues></_>
        <_>
          <internalNodes>
            0 -1 29 2.9536971822381020e-02</internalNodes>
          <leafValues>
            -2.1229591965675354e-01 6.8158555030822754e-01</leafValues></_>
        <_>
          <internalNodes>
            0 -1 78 -1.0998393595218658e-01</internalNodes>
          <leafValues>
            6.5733855962753296e-01 -1.9950123131275177e-01</leafValues></_>
        <_>
          <internalNodes>
            0 -1 18 -9.1468973550945520e-04</internalNodes>
          <leafValues>
            -6.8098843097686768e-01 2.2693723440170288e-01</leafValues></_></weakClassifiers></_>
    <!-- stage 6 -->
    <_>
      <maxWeakCount>11</maxWeakCount>
      <stageThreshold>-2.6393443346023560e-01</stageThreshold>
      <weakClassifiers>
        <_>
          <internalNodes>
            0 -1 11 8.2353815436363220e-02</internalNodes>
          <leafValues>
            1.5589353442192078e-01 9.1762965917587280e-01</leafValues></_>
        <_>
          <internalNodes>
            0 -1 130 -1.5416523441672325e-02</internalNodes>
          <leafValues>
            7.8436726331710815e-01 -1.6666808724403381e-01</leafValues></_>
        <_>
          <internalNodes>
            0 -1 87 5.5361308157444000e-02</internalNodes>
          <leafValues>
            -3.3783462643623352e-01 7.1603018045425415e-01</leafValues></_>
        <_>
          <internalNodes>
            0 -1 155 7.1003422141075134e-02</internalNodes>
          <leafValues>
            -4.6533784270286560e-01 4.4022810459136963e-01</leafValues></_>
        <_>
          <internalNodes>
            0 -1 198 -2.1830196492373943e-03</internalNodes>
          <leafValues>
            3.3544921875000000e-01 -5.1831024885177612e-01</leafValues></_>
        <_>
          <internalNodes>
            0 -1 234 -6.9017419591546059e-03</internalNodes>
          <leafValues>
            5.1883214712142944e-01 -3.1711214780807495e-01</leafValues></_>
        <_>
          <internalNodes>
            0 -1 141 9.1793844476342201e-03</internalNodes>
          <leafValues>
            -2.1939770877361298e-01 7.8324669599533081e-01</leafValues></_>
        <_>
          <internalNodes>
            0 -1 140 -2.3013388738036156e-02</internalNodes>
          <leafValues>
            9.0574300289154053e-01 -1.8593958020210266e-01</leafValues></_>
        <_>
          <internalNodes>
            0 -1 3 -9.3942657113075256e-03</internalNodes>
          <leafValues>
            4.5536953210830688e-01 -2.5366449356079102e-01</leafValues></_>
        <_>
          <internalNodes>
            0 -1 36 -3.7834430113434792e-03</internalNodes>
          <leafValues>
            -7.9024201631546021e-01 1.6614991426467896e-01</leafValues></_>
        <_>
          <internalNodes>
            0 -1 34 9.5593091100454330e-03</internalNodes>
          <leafValues>
            1.8858310580253601e-01 -7.3772031068801880e-01</leafValues></_></weakClassifiers></_>
    <!-- stage 7 -->
    <_>
      <maxWeakCount>13</maxWeakCount>
      <stageThreshold>-2.8919839859008789e-01</stageThreshold>
      <weakClassifiers>
        <_>
          <internalNodes>
            0 -1 6 1.0863659530878067e-01</internalNodes>
          <leafValues>
            2.6279863715171814e-01 9.1509717702865601e-01</leafValues></_>
        <_>
          <internalNodes>
            0 -1 204 3.9204999804496765e-02</internalNodes>
          <leafValues>
            -2.0341636240482330e-01 7.1112257242202759e-01</leafValues></_>
        <_>
          <internalNodes>
            0 -1 16 -1.0250533930957317e-02</internalNodes>
          <leafValues>
            6.8605381250381470e-01 -2.3120886087417603e-01</leafValues></_>
        <_>
          <internalNodes>
            0 -1 131 -3.3090531826019287e-02</internalNodes>
          <leafValues>
            5.3166764974594116e-01 -3.5389295220375061e-01</leafValues></_>
        <_>
          <internalNodes>
            0 -1 74 1.1580643057823181e-01</internalNodes>
          <leafValues>
            -4.5495402812957764e-01 4.6296322345733643e-01</leafValues></_>
        <_>
          <internalNodes>
            0 -1 158 1.3707711361348629e-02</internalNodes>
          <leafValues>
            -2.0814538002014160e-01 9.4639885425567627e-01</leafValues></_>
        <_>
          <internalNodes>
            0 -1 105 -1.5540575608611107e-02</internalNodes>
          <leafValues>
            7.4850571155548096e-01 -1.7110709846019745e-01</leafValues></_>
        <_>
          <internalNodes>
            0 -1 129 1.0782474651932716e-02</internalNodes>
          <leafValues>
            -2.6303169131278992e-01 5.2842050790786743e-01</leafValues></_>
        <_>
          <internalNodes>
            0 -1 122 -1.7707739025354385e-02</internalNodes>
          <leafValues>
            6.8167924880981445e-01 -2.0017077028751373e-01</leafValues></_>
        <_>
          <internalNodes>
            0 -1 145 -1.1849733069539070e-02</internalNodes>
          <leafValues>
            6.6352605819702148e-01 -2.3107720911502838e-01</leafValues></_>
        <_>
          <internalNodes>
            0 -1 91 5.9551605954766273e-04</internalNodes>
          <leafValues>
            2.6686206459999084e-01 -5.9649455547332764e-01</leafValues></_>
        <_>
          <internalNodes>
            0 -1 112 -1.3481562957167625e-02</internalNodes>
          <leafValues>
            5.0651150941848755e-01 -3.0069535970687866e-01</leafValues></_>
        <_>
          <internalNodes>
            0 -1 245 1.1314655421301723e-03</internalNodes>
          <leafValues>
            2.0075644552707672e-01 -6.8639689683914185e-01</leafValues></_></weakClassifiers></_>
    <!-- stage 8 -->
    <_>
      <maxWeakCount>13</maxWeakCount>
      <stageThreshold>-5.6007397174835205e-01</stageThreshold>
      <weakClassifiers>
        <_>
          <internalNodes>
            0 -1 15 1.9220126792788506e-02</internalNodes>
          <leafValues>
            -2.1854305267333984e-01 9.0937769412994385e-01</leafValues></_>
        <_>
          <internalNodes>
            0 -1 196 9.3883320689201355e-02</internalNodes>
          <leafValues>
            -4.3519741296768188e-01 6.8751245737075806e-01</leafValues></_>
        <_>
          <internalNodes>
            0 -1 49 -8.5299257189035416e-03</internalNodes>
          <leafValues>
            5.5491036176681519e-01 -3.6251834034919739e-01</leafValues></_>
        <_>
          <internalNodes>
            0 -1 20 7.5914710760116577e-03</internalNodes>
          <leafValues>
            -3.2813706994056702e-01 5.7313746213912964e-01</leafValues></_>
        <_>
          <internalNodes>
            0 -1 59 3.2625101506710052e-02</internalNodes>
          <leafValues>
            -3.5697710514068604e-01 4.6646627783775330e-01</leafValues></_>
        <_>
          <internalNodes>
            0 -1 135 6.1813019216060638e-02</internalNodes>
          <leafValues>
            -2.8364956378936768e-01 5.5853271484375000e-01</leafValues></_>
        <_>
          <internalNodes>
            0 -1 107 -1.7752233892679214e-02</internalNodes>
          <leafValues>
            8.2469862699508667e-01 -1.8779507279396057e-01</leafValues></_>
        <_>
          <internalNodes>
            0 -1 121 -2.1912364289164543e-02</internalNodes>
          <leafValues>
            7.7155673503875732e-01 -1.8705101311206818e-01</leafValues></_>
        <_>
          <internalNodes>
            0 -1 128 -1.1250117095187306e-03</internalNodes>
          <leafValues>
            -6.5794044733047485e-01 2.6185426115989685e-01</leafValues></_>
        <_>
          <internalNodes>
            0 -1 232 4.8195742419920862e-04</internalNodes>
          <leafValues>
            1.8091633915901184e-01 -6.2659990787506104e-01</leafValues></_>
        <_>
          <internalNodes>
            0 -1 210 -2.5003824848681688e-03</internalNodes>
          <leafValues>
            -5.9373658895492554e-01 2.0008949935436249e-01</leafValues></_>
        <_>
          <internalNodes>
            0 -1 111 -1.0051170364022255e-02</internalNodes>
          <leafValues>
            3.3797657489776611e-01 -4.1620236635208130e-01</leafValues></_>
        <_>
          <internalNodes>
            0 -1 244 -6.6522968700155616e-04</internalNodes>
          <leafValues>
            -5.2763032913208008e-01 2.3510563373565674e-01</leafValues></_></weakClassifiers></_>
    <!-- stage 9 -->
    <_>
      <maxWeakCount>14</maxWeakCount>
      <stageThreshold>-1.7519271373748779e-01</stageThreshold>
      <weakClassifiers>
        <_>
          <internalNodes>
            0 -1 148 8.1788390874862671e-02</internalNodes>
          <leafValues>
            9.0135562419891357e-01 7.6023392379283905e-02</leafValues></_>
        <_>
          <internalNodes>
            0 -1 213 8.7311975657939911e-03</internalNodes>
          <leafValues>
            -3.7981745600700378e-01 6.5016186237335205e-01</leafValues></_>
        <_>
          <internalNodes>
            0 -1 133 1.6364276409149170e-02</internalNodes>
          <leafValues>
            -2.8385818004608154e-01 6.3049733638763428e-01</leafValues></_>
        <_>
          <internalNodes>
            0 -1 75 -5.2730835974216461e-02</internalNodes>
          <leafValues>
            3.2327741384506226e-01 -6.1369431018829346e-01</leafValues></_>
        <_>
          <internalNodes>
            0 -1 92 3.9830273017287254e-03</internalNodes>
          <leafValues>
            -4.9030509591102600e-01 3.8234564661979675e-01</leafValues></_>
        <_>
          <internalNodes>
            0 -1 19 3.3499285578727722e-02</internalNodes>
          <leafValues>
            -2.7180612087249756e-01 5.9172594547271729e-01</leafValues></_>
        <_>
          <internalNodes>
            0 -1 156 7.9299844801425934e-03</internalNodes>
          <leafValues>
            -2.4622426927089691e-01 6.3333672285079956e-01</leafValues></_>
        <_>
          <internalNodes>
            0 -1 61 -2.0064648706465960e-03</internalNodes>
          <leafValues>
            -7.3731231689453125e-01 2.0141233503818512e-01</leafValues></_>
        <_>
          <internalNodes>
            0 -1 138 1.2978635728359222e-02</internalNodes>
          <leafValues>
            -2.3557487130165100e-01 6.9605392217636108e-01</leafValues></_>
        <_>
          <internalNodes>
            0 -1 160 5.4300553165376186e-03</internalNodes>
          <leafValues>
            -2.8037825226783752e-01 6.9716113805770874e-01</leafValues></_>
        <_>
          <internalNodes>
            0 -1 188 -9.4486083835363388e-03</internalNodes>
          <leafValues>
            4.5171546936035156e-01 -3.0560055375099182e-01</leafValues></_>
        <_>
          <internalNodes>
            0 -1 4 -2.1717194467782974e-02</internalNodes>
          <leafValues>
            4.0715804696083069e-01 -3.5283622145652771e-01</leafValues></_>
        <_>
          <internalNodes>
            0 -1 241 1.3177203945815563e-03</internalNodes>
          <leafValues>
            1.8136379122734070e-01 -7.9957181215286255e-01</leafValues></_>
        <_>
          <internalNodes>
            0 -1 42 -1.0274350643157959e-03</internalNodes>
          <leafValues>
            -5.7150501012802124e-01 1.8423813581466675e-01</leafValues></_></weakClassifiers></_>
    <!-- stage 10 -->
    <_>
      <maxWeakCount>14</maxWeakCount>
      <stageThreshold>-2.6150652766227722e-01</stageThreshold>
      <weakClassifiers>
        <_>
          <internalNodes>
            0 -1 5 7.8274220228195190e-02</internalNodes>
          <leafValues>
            2.3664122819900513e-01 9.1113746166229248e-01</leafValues></_>
        <_>
          <internalNodes>
            0 -1 110 -1.7234042286872864e-02</internalNodes>
          <leafValues>
            7.8742969036102295e-01 5.7214807718992233e-02</leafValues></_>
        <_>
          <internalNodes>
            0 -1 181 -1.6958005726337433e-02</internalNodes>
          <leafValues>
            5.5543828010559082e-01 -2.9557460546493530e-01</leafValues></_>
        <_>
          <internalNodes>
            0 -1 236 -1.0530451312661171e-02</internalNodes>
          <leafValues>
            6.6700321435928345e-01 -2.4266517162322998e-01</leafValues></_>
        <_>
          <internalNodes>
            0 -1 183 -1.2329996097832918e-03</internalNodes>
          <leafValues>
            -7.8161644935607910e-01 1.6771152615547180e-01</leafValues></_>
        <_>
          <internalNodes>
            0 -1 216 4.3577747419476509e-03</internalNodes>
          <leafValues>
            -2.1911211311817169e-01 7.2015625238418579e-01</leafValues></_>
        <_>
          <internalNodes>
            0 -1 99 -2.2932861000299454e-02</internalNodes>
          <leafValues>
            6.7058253288269043e-01 -1.9834651052951813e-01</leafValues></_>
        <_>
          <internalNodes>
            0 -1 90 -2.7856180444359779e-02</internalNodes>
          <leafValues>
            7.3971271514892578e-01 -1.4892710745334625e-01</leafValues></_>
        <_>
          <internalNodes>
            0 -1 88 -1.6663163900375366e-02</internalNodes>
          <leafValues>
            7.5989711284637451e-01 -1.5344840288162231e-01</leafValues></_>
        <_>
          <internalNodes>
            0 -1 229 3.9104549214243889e-03</internalNodes>
          <leafValues>
            2.0924837887287140e-01 -7.5398808717727661e-01</leafValues></_>
        <_>
          <internalNodes>
            0 -1 161 -1.2658255174756050e-02</internalNodes>
          <leafValues>
            6.6322869062423706e-01 -2.3689860105514526e-01</leafValues></_>
        <_>
          <internalNodes>
            0 -1 82 -3.5476293414831161e-03</internalNodes>
          <leafValues>
            7.9567176103591919e-01 -1.3517847657203674e-01</leafValues></_>
        <_>
          <internalNodes>
            0 -1 109 -1.0199289536103606e-03</internalNodes>
          <leafValues>
            -5.6904357671737671e-01 2.2450888156890869e-01</leafValues></_>
        <_>
          <internalNodes>
            0 -1 159 -1.6511054709553719e-03</internalNodes>
          <leafValues>
            4.7331964969635010e-01 -2.5413978099822998e-01</leafValues></_></weakClassifiers></_>
    <!-- stage 11 -->
    <_>
      <maxWeakCount>14</maxWeakCount>
      <stageThreshold>-1.4924056828022003e-01</stageThreshold>
      <weakClassifiers>
        <_>
          <internalNodes>
            0 -1 168 -6.0033351182937622e-03</internalNodes>
          <leafValues>
            -3.4831461310386658e-01 8.9292758703231812e-01</leafValues></_>
        <_>
          <internalNodes>
            0 -1 113 2.0747197791934013e-02</internalNodes>
          <leafValues>
            -1.1521442979574203e-01 7.6175701618194580e-01</leafValues></_>
        <_>
          <internalNodes>
            0 -1 84 5.8234505355358124e-02</internalNodes>
          <leafValues>
            -3.6980319023132324e-01 5.5743628740310669e-01</leafValues></_>
        <_>
          <internalNodes>
            0 -1 68 7.8302910551428795e-03</internalNodes>
          <leafValues>
            -3.2779204845428467e-01 5.0344598293304443e-01</leafValues></_>
        <_>
          <internalNodes>
            0 -1 33 2.7521443553268909e-03</internalNodes>
          <leafValues>
            2.0190936326980591e-01 -8.2351881265640259e-01</leafValues></_>
        <_>
          <internalNodes>
            0 -1 190 5.2106812596321106e-02</internalNodes>
          <leafValues>
            -2.8108984231948853e-01 5.3732222318649292e-01</leafValues></_>
        <_>
          <internalNodes>
            0 -1 104 6.6993134096264839e-03</internalNodes>
          <leafValues>
            -2.9023563861846924e-01 4.4907525181770325e-01</leafValues></_>
        <_>
          <internalNodes>
            0 -1 24 3.9787711575627327e-03</internalNodes>
          <leafValues>
            1.4658321440219879e-01 -8.3604758977890015e-01</leafValues></_>
        <_>
          <internalNodes>
            0 -1 157 4.4524418190121651e-03</internalNodes>
          <leafValues>
            -2.8199309110641479e-01 5.7237064838409424e-01</leafValues></_>
        <_>
          <internalNodes>
            0 -1 229 -2.3010587319731712e-03</internalNodes>
          <leafValues>
            -7.0407187938690186e-01 2.0515555143356323e-01</leafValues></_>
        <_>
          <internalNodes>
            0 -1 65 1.9273599609732628e-03</internalNodes>
          <leafValues>
            1.4668937027454376e-01 -7.5601744651794434e-01</leafValues></_>
        <_>
          <internalNodes>
            0 -1 164 -1.3539699837565422e-02</internalNodes>
          <leafValues>
            4.4810461997985840e-01 -3.1033575534820557e-01</leafValues></_>
        <_>
          <internalNodes>
            0 -1 174 7.8611876815557480e-03</internalNodes>
          <leafValues>
            -1.9633793830871582e-01 5.6783944368362427e-01</leafValues></_>
        <_>
          <internalNodes>
            0 -1 146 8.2457987591624260e-03</internalNodes>
          <leafValues>
            -2.1167935431003571e-01 5.5655068159103394e-01</leafValues></_></weakClassifiers></_>
    <!-- stage 12 -->
    <_>
      <maxWeakCount>15</maxWeakCount>
      <stageThreshold>-1.5180583298206329e-01</stageThreshold>
      <weakClassifiers>
        <_>
          <internalNodes>
            0 -1 57 1.6964497044682503e-02</internalNodes>
          <leafValues>
            1.9741100072860718e-01 9.2430156469345093e-01</leafValues></_>
        <_>
          <internalNodes>
            0 -1 97 3.0472340062260628e-02</internalNodes>
          <leafValues>
            -2.9701295495033264e-01 7.0285493135452271e-01</leafValues></_>
        <_>
          <internalNodes>
            0 -1 206 -1.4404823072254658e-02</internalNodes>
          <leafValues>
            8.1344336271286011e-01 -1.5936526656150818e-01</leafValues></_>
        <_>
          <internalNodes>
            0 -1 219 -6.2350528314709663e-03</internalNodes>
          <leafValues>
            3.8001957535743713e-01 -4.5296716690063477e-01</leafValues></_>
        <_>
          <internalNodes>
            0 -1 70 -4.9166576936841011e-03</internalNodes>
          <leafValues>
            5.8474296331405640e-01 -2.4091638624668121e-01</leafValues></_>
        <_>
          <internalNodes>
            0 -1 27 -4.7791115939617157e-02</internalNodes>
          <leafValues>
            2.6352149248123169e-01 -4.8574712872505188e-01</leafValues></_>
        <_>
          <internalNodes>
            0 -1 180 -6.3610225915908813e-03</internalNodes>
          <leafValues>
            2.8285327553749084e-01 -4.4767397642135620e-01</leafValues></_>
        <_>
          <internalNodes>
            0 -1 153 6.6613882780075073e-02</internalNodes>
          <leafValues>
            -1.8983665108680725e-01 7.5435906648635864e-01</leafValues></_>
        <_>
          <internalNodes>
            0 -1 237 -8.9946505613625050e-04</internalNodes>
          <leafValues>
            -6.4563775062561035e-01 2.1031323075294495e-01</leafValues></_>
        <_>
          <internalNodes>
            0 -1 102 5.1733208820223808e-03</internalNodes>
          <leafValues>
            -3.1874290108680725e-01 3.5407778620719910e-01</leafValues></_>
        <_>
          <internalNodes>
            0 -1 243 4.5327929547056556e-04</internalNodes>
          <leafValues>
            2.0960378646850586e-01 -5.7960712909698486e-01</leafValues></_>
        <_>
          <internalNodes>
            0 -1 142 2.3546782322227955e-03</internalNodes>
          <leafValues>
            -4.0098232030868530e-01 3.0687850713729858e-01</leafValues></_>
        <_>
          <internalNodes>
            0 -1 22 -2.0071621984243393e-03</internalNodes>
          <leafValues>
            -7.6466000080108643e-01 1.4964981377124786e-01</leafValues></_>
        <_>
          <internalNodes>
            0 -1 82 -3.0261110514402390e-03</internalNodes>
          <leafValues>
            5.9329271316528320e-01 -2.1212998032569885e-01</leafValues></_>
        <_>
          <internalNodes>
            0 -1 166 7.1782119572162628e-02</internalNodes>
          <leafValues>
            -4.5517081022262573e-01 2.2799478471279144e-01</leafValues></_></weakClassifiers></_>
    <!-- stage 13 -->
    <_>
      <maxWeakCount>14</maxWeakCount>
      <stageThreshold>-3.0228358507156372e-01</stageThreshold>
      <weakClassifiers>
        <_>
          <internalNodes>
            0 -1 48 3.1497366726398468e-02</internalNodes>
          <leafValues>
            6.4516127109527588e-02 9.2094397544860840e-01</leafValues></_>
        <_>
          <internalNodes>
            0 -1 14 7.2258841246366501e-03</internalNodes>
          <leafValues>
            -3.5740058869123459e-02 7.3698431253433228e-01</leafValues></_>
        <_>
          <internalNodes>
            0 -1 198 -4.3928604573011398e-03</internalNodes>
          <leafValues>
            4.3500396609306335e-01 -4.5650476217269897e-01</leafValues></_>
        <_>
          <internalNodes>
            0 -1 214 2.8834898024797440e-02</internalNodes>
          <leafValues>
            -3.3167955279350281e-01 5.7165473699569702e-01</leafValues></_>
        <_>
          <internalNodes>
            0 -1 185 -3.5801781341433525e-03</internalNodes>
          <leafValues>
            4.8084494471549988e-01 -3.2905888557434082e-01</leafValues></_>
        <_>
          <internalNodes>
            0 -1 72 -1.0659295134246349e-02</internalNodes>
          <leafValues>
            4.4913071393966675e-01 -3.3410409092903137e-01</leafValues></_>
        <_>
          <internalNodes>
            0 -1 151 5.8224885724484921e-03</internalNodes>
          <leafValues>
            -2.5598299503326416e-01 5.2101027965545654e-01</leafValues></_>
        <_>
          <internalNodes>
            0 -1 231 -2.5933841243386269e-03</internalNodes>
          <leafValues>
            -6.8706089258193970e-01 1.8151861429214478e-01</leafValues></_>
        <_>
          <internalNodes>
            0 -1 23 -2.3030549287796021e-02</internalNodes>
          <leafValues>
            3.0140197277069092e-01 -4.4640189409255981e-01</leafValues></_>
        <_>
          <internalNodes>
            0 -1 220 -3.0873897485435009e-03</internalNodes>
          <leafValues>
            3.3443132042884827e-01 -3.5725978016853333e-01</leafValues></_>
        <_>
          <internalNodes>
            0 -1 223 -3.0065772589296103e-03</internalNodes>
          <leafValues>
            -8.0267053842544556e-01 1.5085595846176147e-01</leafValues></_>
        <_>
          <internalNodes>
            0 -1 2 1.4442370738834143e-03</internalNodes>
          <leafValues>
            -3.5852569341659546e-01 2.9401111602783203e-01</leafValues></_>
        <_>
          <internalNodes>
            0 -1 226 1.2275679036974907e-03</internalNodes>
          <leafValues>
            -8.1745678186416626e-01 1.5821899473667145e-01</leafValues></_>
        <_>
          <internalNodes>
            0 -1 125 -2.9762903228402138e-02</internalNodes>
          <leafValues>
            8.8266724348068237e-01 -1.6435492038726807e-01</leafValues></_></weakClassifiers></_>
    <!-- stage 14 -->
    <_>
      <maxWeakCount>15</maxWeakCount>
      <stageThreshold>4.5417457818984985e-02</stageThreshold>
      <weakClassifiers>
        <_>
          <internalNodes>
            0 -1 238 2.8955549933016300e-03</internalNodes>
          <leafValues>
            8.9664083719253540e-01 9.6774190664291382e-02</leafValues></_>
        <_>
          <internalNodes>
            0 -1 47 1.1030911654233932e-01</internalNodes>
          <leafValues>
            -1.7414300143718719e-01 6.7397719621658325e-01</leafValues></_>
        <_>
          <internalNodes>
            0 -1 96 -2.0069316029548645e-01</internalNodes>
          <leafValues>
            5.6451761722564697e-01 -3.1887897849082947e-01</leafValues></_>
        <_>
          <internalNodes>
            0 -1 71 -9.8681915551424026e-03</internalNodes>
          <leafValues>
            6.2855124473571777e-01 -2.3870269954204559e-01</leafValues></_>
        <_>
          <internalNodes>
            0 -1 200 -2.9073713812977076e-03</internalNodes>
          <leafValues>
            3.7069880962371826e-01 -3.7763723731040955e-01</leafValues></_>
        <_>
          <internalNodes>
            0 -1 240 4.2452121851965785e-04</internalNodes>
          <leafValues>
            1.7008978128433228e-01 -6.4945852756500244e-01</leafValues></_>
        <_>
          <internalNodes>
            0 -1 118 4.4475300237536430e-03</internalNodes>
          <leafValues>
            -3.0962774157524109e-01 4.3267777562141418e-01</leafValues></_>
        <_>
          <internalNodes>
            0 -1 173 7.1608140133321285e-03</internalNodes>
          <leafValues>
            -1.5541592240333557e-01 7.5222170352935791e-01</leafValues></_>
        <_>
          <internalNodes>
            0 -1 157 7.5011989101767540e-03</internalNodes>
          <leafValues>
            -2.3366518318653107e-01 5.8941560983657837e-01</leafValues></_>
        <_>
          <internalNodes>
            0 -1 224 -2.6494590565562248e-03</internalNodes>
          <leafValues>
            -6.4063036441802979e-01 2.2481133043766022e-01</leafValues></_>
        <_>
          <internalNodes>
            0 -1 120 3.8974788039922714e-02</internalNodes>
          <leafValues>
            1.4930742979049683e-01 -7.4819517135620117e-01</leafValues></_>
        <_>
          <internalNodes>
            0 -1 13 1.4664940536022186e-03</internalNodes>
          <leafValues>
            -4.5682835578918457e-01 2.4946661293506622e-01</leafValues></_>
        <_>
          <internalNodes>
            0 -1 175 9.4565534964203835e-03</internalNodes>
          <leafValues>
            -1.5592341125011444e-01 7.0251518487930298e-01</leafValues></_>
        <_>
          <internalNodes>
            0 -1 37 1.4244308695197105e-02</internalNodes>
          <leafValues>
            1.7920118570327759e-01 -6.4047098159790039e-01</leafValues></_>
        <_>
          <internalNodes>
            0 -1 30 2.1906513720750809e-03</internalNodes>
          <leafValues>
            1.6661053895950317e-01 -5.9619206190109253e-01</leafValues></_></weakClassifiers></_>
    <!-- stage 15 -->
    <_>
      <maxWeakCount>16</maxWeakCount>
      <stageThreshold>-2.2909117862582207e-02</stageThreshold>
      <weakClassifiers>
        <_>
          <internalNodes>
            0 -1 136 1.2972522526979446e-02</internalNodes>
          <leafValues>
            8.8189417123794556e-01 -5.8333331346511841e-01</leafValues></_>
        <_>
          <internalNodes>
            0 -1 214 1.8193736672401428e-02</internalNodes>
          <leafValues>
            -1.6027595102787018e-01 6.5846925973892212e-01</leafValues></_>
        <_>
          <internalNodes>
            0 -1 44 8.6629241704940796e-03</internalNodes>
          <leafValues>
            -2.8343933820724487e-01 5.4138582944869995e-01</leafValues></_>
        <_>
          <internalNodes>
            0 -1 103 -8.9456830173730850e-03</internalNodes>
          <leafValues>
            6.8019944429397583e-01 -2.0996612310409546e-01</leafValues></_>
        <_>
          <internalNodes>
            0 -1 194 1.5013884752988815e-02</internalNodes>
          <leafValues>
            -2.8254005312919617e-01 5.1336169242858887e-01</leafValues></_>
        <_>
          <internalNodes>
            0 -1 79 5.1834946498274803e-03</internalNodes>
          <leafValues>
            -1.8237207829952240e-01 6.6101175546646118e-01</leafValues></_>
        <_>
          <internalNodes>
            0 -1 40 2.3926692083477974e-03</internalNodes>
          <leafValues>
            2.0124693214893341e-01 -6.0541933774948120e-01</leafValues></_>
        <_>
          <internalNodes>
            0 -1 108 1.3148736208677292e-02</internalNodes>
          <leafValues>
            -1.7914782464504242e-01 6.9658517837524414e-01</leafValues></_>
        <_>
          <internalNodes>
            0 -1 160 8.1369914114475250e-03</internalNodes>
          <leafValues>
            -1.8598710000514984e-01 7.0573580265045166e-01</leafValues></_>
        <_>
          <internalNodes>
            0 -1 197 8.1869109999388456e-04</internalNodes>
          <leafValues>
            -4.9837282299995422e-01 3.2654792070388794e-01</leafValues></_>
        <_>
          <internalNodes>
            0 -1 227 3.2157958485186100e-03</internalNodes>
          <leafValues>
            1.4566625654697418e-01 -7.8254801034927368e-01</leafValues></_>
        <_>
          <internalNodes>
            0 -1 152 4.9920544028282166e-02</internalNodes>
          <leafValues>
            -2.0031131803989410e-01 6.3847786188125610e-01</leafValues></_>
        <_>
          <internalNodes>
            0 -1 10 6.3476907089352608e-03</internalNodes>
          <leafValues>
            -1.7545728385448456e-01 6.0625773668289185e-01</leafValues></_>
        <_>
          <internalNodes>
            0 -1 195 -7.2694895789027214e-03</internalNodes>
          <leafValues>
            3.2817563414573669e-01 -3.0541193485260010e-01</leafValues></_>
        <_>
          <internalNodes>
            0 -1 170 -1.0940176434814930e-03</internalNodes>
          <leafValues>
            -7.7054494619369507e-01 1.3635158538818359e-01</leafValues></_>
        <_>
          <internalNodes>
            0 -1 134 -9.3795154243707657e-03</internalNodes>
          <leafValues>
            6.5215051174163818e-01 -1.7711904644966125e-01</leafValues></_></weakClassifiers></_>
    <!-- stage 16 -->
    <_>
      <maxWeakCount>19</maxWeakCount>
      <stageThreshold>-3.2471930980682373e-01</stageThreshold>
      <weakClassifiers>
        <_>
          <internalNodes>
            0 -1 154 -5.8259936049580574e-03</internalNodes>
          <leafValues>
            9.0941810607910156e-01 3.4868422150611877e-01</leafValues></_>
        <_>
          <internalNodes>
            0 -1 83 1.7175875604152679e-02</internalNodes>
          <leafValues>
            -3.8055440783500671e-01 6.0887730121612549e-01</leafValues></_>
        <_>
          <internalNodes>
            0 -1 218 -1.1037021875381470e-02</internalNodes>
          <leafValues>
            4.2633244395256042e-01 -3.5168549418449402e-01</leafValues></_>
        <_>
          <internalNodes>
            0 -1 163 -6.3803599914535880e-04</internalNodes>
          <leafValues>
            2.5773599743843079e-01 -5.6363236904144287e-01</leafValues></_>
        <_>
          <internalNodes>
            0 -1 150 8.0022796988487244e-02</internalNodes>
          <leafValues>
            -1.6494485735893250e-01 8.6940687894821167e-01</leafValues></_>
        <_>
          <internalNodes>
            0 -1 0 -6.2928157858550549e-03</internalNodes>
          <leafValues>
            -6.0535478591918945e-01 1.9581593573093414e-01</leafValues></_>
        <_>
          <internalNodes>
            0 -1 100 -3.7935250438749790e-03</internalNodes>
          <leafValues>
            4.1202023625373840e-01 -2.8407996892929077e-01</leafValues></_>
        <_>
          <internalNodes>
            0 -1 39 -4.7584334970451891e-04</internalNodes>
          <leafValues>
            -4.4223240017890930e-01 2.5698253512382507e-01</leafValues></_>
        <_>
          <internalNodes>
            0 -1 35 8.0407224595546722e-03</internalNodes>
          <leafValues>
            -3.0658349394798279e-01 3.7467759847640991e-01</leafValues></_>
        <_>
          <internalNodes>
            0 -1 233 2.6990575715899467e-03</internalNodes>
          <leafValues>
            -5.4198688268661499e-01 1.6232822835445404e-01</leafValues></_>
        <_>
          <internalNodes>
            0 -1 192 5.5528581142425537e-03</internalNodes>
          <leafValues>
            -3.2369390130043030e-01 2.9185920953750610e-01</leafValues></_>
        <_>
          <internalNodes>
            0 -1 126 -2.6946578174829483e-02</internalNodes>
          <leafValues>
            7.8620356321334839e-01 -1.5240201354026794e-01</leafValues></_>
        <_>
          <internalNodes>
            0 -1 106 1.5898872166872025e-02</internalNodes>
          <leafValues>
            -1.6970652341842651e-01 6.1497759819030762e-01</leafValues></_>
        <_>
          <internalNodes>
            0 -1 179 -5.0725191831588745e-03</internalNodes>
          <leafValues>
            -7.0736122131347656e-01 1.7234724760055542e-01</leafValues></_>
        <_>
          <internalNodes>
            0 -1 201 3.6284611560404301e-03</internalNodes>
          <leafValues>
            1.4566919207572937e-01 -6.7632824182510376e-01</leafValues></_>
        <_>
          <internalNodes>
            0 -1 169 -1.3789534568786621e-03</internalNodes>
          <leafValues>
            -7.6492297649383545e-01 9.9952399730682373e-02</leafValues></_>
        <_>
          <internalNodes>
            0 -1 69 7.5283963233232498e-03</internalNodes>
          <leafValues>
            1.4073368906974792e-01 -6.0784208774566650e-01</leafValues></_>
        <_>
          <internalNodes>
            0 -1 230 2.4907556362450123e-03</internalNodes>
          <leafValues>
            1.1966011673212051e-01 -6.7548149824142456e-01</leafValues></_>
        <_>
          <internalNodes>
            0 -1 144 -8.4386486560106277e-03</internalNodes>
          <leafValues>
            5.0873768329620361e-01 -1.9827055931091309e-01</leafValues></_></weakClassifiers></_>
    <!-- stage 17 -->
    <_>
      <maxWeakCount>17</maxWeakCount>
      <stageThreshold>-3.0179413035511971e-02</stageThreshold>
      <weakClassifiers>
        <_>
          <internalNodes>
            0 -1 55 7.1568071842193604e-02</internalNodes>
          <leafValues>
            3.9220780134201050e-01 9.1822934150695801e-01</leafValues></_>
        <_>
          <internalNodes>
            0 -1 117 1.1677084490656853e-02</internalNodes>
          <leafValues>
            -2.0500883460044861e-01 6.7792367935180664e-01</leafValues></_>
        <_>
          <internalNodes>
            0 -1 52 -2.2118829190731049e-02</internalNodes>
          <leafValues>
            4.6121421456336975e-01 -3.2141396403312683e-01</leafValues></_>
        <_>
          <internalNodes>
            0 -1 165 -2.9736120253801346e-02</internalNodes>
          <leafValues>
            3.5285347700119019e-01 -4.9183341860771179e-01</leafValues></_>
        <_>
          <internalNodes>
            0 -1 184 -2.8212757781147957e-02</internalNodes>
          <leafValues>
            2.9392987489700317e-01 -5.2632337808609009e-01</leafValues></_>
        <_>
          <internalNodes>
            0 -1 211 4.7052572481334209e-03</internalNodes>
          <leafValues>
            -2.0170262455940247e-01 6.1518925428390503e-01</leafValues></_>
        <_>
          <internalNodes>
            0 -1 28 1.5204605006147176e-04</internalNodes>
          <leafValues>
            2.1036724746227264e-01 -5.1921099424362183e-01</leafValues></_>
        <_>
          <internalNodes>
            0 -1 124 -1.7244322225451469e-02</internalNodes>
          <leafValues>
            3.9279279112815857e-01 -2.8122037649154663e-01</leafValues></_>
        <_>
          <internalNodes>
            0 -1 46 -2.0483761909417808e-04</internalNodes>
          <leafValues>
            -7.2247272729873657e-01 1.7387010157108307e-01</leafValues></_>
        <_>
          <internalNodes>
            0 -1 171 2.3804817348718643e-02</internalNodes>
          <leafValues>
            -2.5672894716262817e-01 4.6748593449592590e-01</leafValues></_>
        <_>
          <internalNodes>
            0 -1 178 -1.1208442971110344e-02</internalNodes>
          <leafValues>
            7.2100454568862915e-01 -1.5271772444248199e-01</leafValues></_>
        <_>
          <internalNodes>
            0 -1 38 -2.5169863365590572e-03</internalNodes>
          <leafValues>
            -7.1588212251663208e-01 1.6390824317932129e-01</leafValues></_>
        <_>
          <internalNodes>
            0 -1 177 -6.2463339418172836e-03</internalNodes>
          <leafValues>
            4.2670178413391113e-01 -2.5350260734558105e-01</leafValues></_>
        <_>
          <internalNodes>
            0 -1 41 -2.2228460758924484e-02</internalNodes>
          <leafValues>
            -6.5863078832626343e-01 1.8272484838962555e-01</leafValues></_>
        <_>
          <internalNodes>
            0 -1 203 5.1990519277751446e-03</internalNodes>
          <leafValues>
            -1.9452831149101257e-01 5.9041208028793335e-01</leafValues></_>
        <_>
          <internalNodes>
            0 -1 67 5.1473341882228851e-03</internalNodes>
          <leafValues>
            1.4386354386806488e-01 -7.7843105792999268e-01</leafValues></_>
        <_>
          <internalNodes>
            0 -1 207 4.6736517106182873e-05</internalNodes>
          <leafValues>
            -4.4670504331588745e-01 2.1715056896209717e-01</leafValues></_></weakClassifiers></_>
    <!-- stage 18 -->
    <_>
      <maxWeakCount>17</maxWeakCount>
      <stageThreshold>-2.1385543048381805e-01</stageThreshold>
      <weakClassifiers>
        <_>
          <internalNodes>
            0 -1 86 3.5323326010257006e-03</internalNodes>
          <leafValues>
            3.0196079611778259e-01 9.0481823682785034e-01</leafValues></_>
        <_>
          <internalNodes>
            0 -1 114 1.1045545339584351e-01</internalNodes>
          <leafValues>
            6.8358287215232849e-02 7.9356503486633301e-01</leafValues></_>
        <_>
          <internalNodes>
            0 -1 222 -1.2559600174427032e-02</internalNodes>
          <leafValues>
            5.2611261606216431e-01 -2.7184620499610901e-01</leafValues></_>
        <_>
          <internalNodes>
            0 -1 17 1.0834314674139023e-01</internalNodes>
          <leafValues>
            -5.1476263999938965e-01 3.0641120672225952e-01</leafValues></_>
        <_>
          <internalNodes>
            0 -1 62 2.2383256873581558e-04</internalNodes>
          <leafValues>
            -4.0039253234863281e-01 3.2301786541938782e-01</leafValues></_>
        <_>
          <internalNodes>
            0 -1 127 -2.9279848560690880e-02</internalNodes>
          <leafValues>
            7.8293317556381226e-01 -1.7958669364452362e-01</leafValues></_>
        <_>
          <internalNodes>
            0 -1 191 -2.0738935563713312e-03</internalNodes>
          <leafValues>
            5.3638517856597900e-01 -2.1215495467185974e-01</leafValues></_>
        <_>
          <internalNodes>
            0 -1 228 -1.1835797922685742e-03</internalNodes>
          <leafValues>
            -5.2478152513504028e-01 2.2854575514793396e-01</leafValues></_>
        <_>
          <internalNodes>
            0 -1 137 -6.1752721667289734e-03</internalNodes>
          <leafValues>
            6.0476309061050415e-01 -2.1123372018337250e-01</leafValues></_>
        <_>
          <internalNodes>
            0 -1 21 -7.3270481079816818e-03</internalNodes>
          <leafValues>
            -6.2338882684707642e-01 2.2276623547077179e-01</leafValues></_>
        <_>
          <internalNodes>
            0 -1 94 -5.4766773246228695e-03</internalNodes>
          <leafValues>
            2.4940636754035950e-01 -4.1635081171989441e-01</leafValues></_>
        <_>
          <internalNodes>
            0 -1 182 1.5491547528654337e-03</internalNodes>
          <leafValues>
            1.6977092623710632e-01 -6.0644042491912842e-01</leafValues></_>
        <_>
          <internalNodes>
            0 -1 172 5.0586578436195850e-03</internalNodes>
          <leafValues>
            -2.4266245961189270e-01 4.7299325466156006e-01</leafValues></_>
        <_>
          <internalNodes>
            0 -1 242 2.1856059320271015e-03</internalNodes>
          <leafValues>
            1.6103249788284302e-01 -7.3890328407287598e-01</leafValues></_>
        <_>
          <internalNodes>
            0 -1 147 6.5305400639772415e-03</internalNodes>
          <leafValues>
            -2.0451444387435913e-01 4.8065260052680969e-01</leafValues></_>
        <_>
          <internalNodes>
            0 -1 119 6.3337441533803940e-03</internalNodes>
          <leafValues>
            -2.1524874866008759e-01 4.2891985177993774e-01</leafValues></_>
        <_>
          <internalNodes>
            0 -1 32 -1.3268712209537625e-03</internalNodes>
          <leafValues>
            -6.7967271804809570e-01 1.4872168004512787e-01</leafValues></_></weakClassifiers></_>
    <!-- stage 19 -->
    <_>
      <maxWeakCount>20</maxWeakCount>
      <stageThreshold>-3.2918855547904968e-01</stageThreshold>
      <weakClassifiers>
        <_>
          <internalNodes>
            0 -1 93 2.0192794501781464e-02</internalNodes>
          <leafValues>
            3.8699689507484436e-01 9.0889894962310791e-01</leafValues></_>
        <_>
          <internalNodes>
            0 -1 68 6.2717399559915066e-03</internalNodes>
          <leafValues>
            1.4742691069841385e-02 7.3471266031265259e-01</leafValues></_>
        <_>
          <internalNodes>
            0 -1 76 -1.9582024216651917e-01</internalNodes>
          <leafValues>
            4.9787145853042603e-01 -2.9814353585243225e-01</leafValues></_>
        <_>
          <internalNodes>
            0 -1 25 4.9549276009202003e-03</internalNodes>
          <leafValues>
            -3.8897320628166199e-01 3.7924280762672424e-01</leafValues></_>
        <_>
          <internalNodes>
            0 -1 63 -1.0775114409625530e-02</internalNodes>
          <leafValues>
            5.8331447839736938e-01 -2.1086993813514709e-01</leafValues></_>
        <_>
          <internalNodes>
            0 -1 202 -5.5017154663801193e-03</internalNodes>
          <leafValues>
            3.1278234720230103e-01 -3.5060608386993408e-01</leafValues></_>
        <_>
          <internalNodes>
            0 -1 1 2.7991560273221694e-05</internalNodes>
          <leafValues>
            -4.2931649088859558e-01 2.4842032790184021e-01</leafValues></_>
        <_>
          <internalNodes>
            0 -1 85 -1.5275491401553154e-02</internalNodes>
          <leafValues>
            6.6050124168395996e-01 -1.5866653621196747e-01</leafValues></_>
        <_>
          <internalNodes>
            0 -1 239 1.4543519355356693e-03</internalNodes>
          <leafValues>
            1.6903549432754517e-01 -6.1765062808990479e-01</leafValues></_>
        <_>
          <internalNodes>
            0 -1 26 2.5577950477600098e-01</internalNodes>
          <leafValues>
            -1.3523846864700317e-01 8.6513954401016235e-01</leafValues></_>
        <_>
          <internalNodes>
            0 -1 167 -1.3798650354146957e-02</internalNodes>
          <leafValues>
            6.9399577379226685e-01 -1.2492606043815613e-01</leafValues></_>
        <_>
          <internalNodes>
            0 -1 116 1.2962640821933746e-01</internalNodes>
          <leafValues>
            -2.1794541180133820e-01 4.6146067976951599e-01</leafValues></_>
        <_>
          <internalNodes>
            0 -1 45 3.1384610338136554e-04</internalNodes>
          <leafValues>
            2.2187690436840057e-01 -4.3494564294815063e-01</leafValues></_>
        <_>
          <internalNodes>
            0 -1 176 -3.3902910072356462e-03</internalNodes>
          <leafValues>
            -8.6836063861846924e-01 1.0155880451202393e-01</leafValues></_>
        <_>
          <internalNodes>
            0 -1 209 -9.4791839364916086e-04</internalNodes>
          <leafValues>
            -4.0593296289443970e-01 2.4522259831428528e-01</leafValues></_>
        <_>
          <internalNodes>
            0 -1 8 2.2424533963203430e-03</internalNodes>
          <leafValues>
            -3.5237035155296326e-01 2.5921982526779175e-01</leafValues></_>
        <_>
          <internalNodes>
            0 -1 64 8.4000583738088608e-03</internalNodes>
          <leafValues>
            -1.4567050337791443e-01 6.4586627483367920e-01</leafValues></_>
        <_>
          <internalNodes>
            0 -1 193 1.4039389789104462e-03</internalNodes>
          <leafValues>
            1.6187454760074615e-01 -6.3062185049057007e-01</leafValues></_>
        <_>
          <internalNodes>
            0 -1 31 8.8638318702578545e-03</internalNodes>
          <leafValues>
            1.1693356186151505e-01 -7.2623580694198608e-01</leafValues></_>
        <_>
          <internalNodes>
            0 -1 189 1.0886619798839092e-02</internalNodes>
          <leafValues>
            -3.9915367960929871e-01 2.2744649648666382e-01</leafValues></_></weakClassifiers></_></stages>
  <features>
    <_>
      <rects>
        <_>
          0 0 1 6 -1.</_>
        <_>
          0 3 1 3 2.</_></rects>
      <tilted>0</tilted></_>
    <_>
      <rects>
        <_>
          0 0 1 8 -1.</_>
        <_>
          0 4 1 4 2.</_></rects>
      <tilted>0</tilted></_>
    <_>
      <rects>
        <_>
          0 0 6 1 -1.</_>
        <_>
          3 0 3 1 2.</_></rects>
      <tilted>0</tilted></_>
    <_>
      <rects>
        <_>
          0 0 9 2 -1.</_>
        <_>
          0 1 9 1 2.</_></rects>
      <tilted>0</tilted></_>
    <_>
      <rects>
        <_>
          0 0 18 2 -1.</_>
        <_>
          0 1 18 1 2.</_></rects>
      <tilted>0</tilted></_>
    <_>
      <rects>
        <_>
          0 1 6 18 -1.</_>
        <_>
          0 7 6 6 3.</_></rects>
      <tilted>0</tilted></_>
    <_>
      <rects>
        <_>
          0 1 9 18 -1.</_>
        <_>
          0 7 9 6 3.</_></rects>
      <tilted>0</tilted></_>
    <_>
      <rects>
        <_>
          0 1 20 15 -1.</_>
        <_>
          0 6 20 5 3.</_></rects>
      <tilted>0</tilted></_>
    <_>
      <rects>
        <_>
          0 2 2 10 -1.</_>
        <_>
          0 2 1 5 2.</_>
        <_>
          1 7 1 5 2.</_></rects>
      <tilted>0</tilted></_>
    <_>
      <rects>
        <_>
          0 2 5 8 -1.</_>
        <_>
          0 6 5 4 2.</_></rects>
      <tilted>0</tilted></_>
    <_>
      <rects>
        <_>
          0 2 6 3 -1.</_>
        <_>
          0 3 6 1 3.</_></rects>
      <tilted>0</tilted></_>
    <_>
      <rects>
        <_>
          0 2 8 15 -1.</_>
        <_>
          0 7 8 5 3.</_></rects>
      <tilted>0</tilted></_>
    <_>
      <rects>
        <_>
          0 2 20 15 -1.</_>
        <_>
          0 7 20 5 3.</_></rects>
      <tilted>0</tilted></_>
    <_>
      <rects>
        <_>
          0 3 2 10 -1.</_>
        <_>
          0 3 1 5 2.</_>
        <_>
          1 8 1 5 2.</_></rects>
      <tilted>0</tilted></_>
    <_>
      <rects>
        <_>
          0 3 4 8 -1.</_>
        <_>
          0 3 2 4 2.</_>
        <_>
          2 7 2 4 2.</_></rects>
      <tilted>0</tilted></_>
    <_>
      <rects>
        <_>
          0 3 6 8 -1.</_>
        <_>
          0 7 6 4 2.</_></rects>
      <tilted>0</tilted></_>
    <_>
      <rects>
        <_>
          0 3 7 3 -1.</_>
        <_>
          0 4 7 1 3.</_></rects>
      <tilted>0</tilted></_>
    <_>
      <rects>
        <_>
          0 4 16 9 -1.</_>
        <_>
          0 7 16 3 3.</_></rects>
      <tilted>0</tilted></_>
    <_>
      <rects>
        <_>
          0 6 1 3 -1.</_>
        <_>
          0 7 1 1 3.</_></rects>
      <tilted>0</tilted></_>
    <_>
      <rects>
        <_>
          0 6 4 14 -1.</_>
        <_>
          2 6 2 14 2.</_></rects>
      <tilted>0</tilted></_>
    <_>
      <rects>
        <_>
          0 7 2 12 -1.</_>
        <_>
          1 7 1 12 2.</_></rects>
      <tilted>0</tilted></_>
    <_>
      <rects>
        <_>
          0 7 20 2 -1.</_>
        <_>
          0 7 10 1 2.</_>
        <_>
          10 8 10 1 2.</_></rects>
      <tilted>0</tilted></_>
    <_>
      <rects>
        <_>
          0 8 2 3 -1.</_>
        <_>
          0 9 2 1 3.</_></rects>
      <tilted>0</tilted></_>
    <_>
      <rects>
        <_>
          0 8 15 6 -1.</_>
        <_>
          0 11 15 3 2.</_></rects>
      <tilted>0</tilted></_>
    <_>
      <rects>
        <_>
          0 9 2 3 -1.</_>
        <_>
          0 10 2 1 3.</_></rects>
      <tilted>0</tilted></_>
    <_>
      <rects>
        <_>
          0 9 4 4 -1.</_>
        <_>
          2 9 2 4 2.</_></rects>
      <tilted>0</tilted></_>
    <_>
      <rects>
        <_>
          0 9 18 11 -1.</_>
        <_>
          9 9 9 11 2.</_></rects>
      <tilted>0</tilted></_>
    <_>
      <rects>
        <_>
          0 9 19 10 -1.</_>
        <_>
          0 14 19 5 2.</_></rects>
      <tilted>0</tilted></_>
    <_>
      <rects>
        <_>
          0 10 2 2 -1.</_>
        <_>
          0 11 2 1 2.</_></rects>
      <tilted>0</tilted></_>
    <_>
      <rects>
        <_>
          0 10 4 9 -1.</_>
        <_>
          2 10 2 9 2.</_></rects>
      <tilted>0</tilted></_>
    <_>
      <rects>
        <_>
          0 10 3 3 -1.</_>
        <_>
          0 11 3 1 3.</_></rects>
      <tilted>0</tilted></_>
    <_>
      <rects>
        <_>
          0 10 3 6 -1.</_>
        <_>
          0 12 3 2 3.</_></rects>
      <tilted>0</tilted></_>
    <_>
      <rects>
        <_>
          0 11 1 3 -1.</_>
        <_>
          0 12 1 1 3.</_></rects>
      <tilted>0</tilted></_>
    <_>
      <rects>
        <_>
          0 11 3 3 -1.</_>
        <_>
          0 12 3 1 3.</_></rects>
      <tilted>0</tilted></_>
    <_>
      <rects>
        <_>
          0 11 3 6 -1.</_>
        <_>
          0 13 3 2 3.</_></rects>
      <tilted>0</tilted></_>
    <_>
      <rects>
        <_>
          0 12 4 7 -1.</_>
        <_>
          2 12 2 7 2.</_></rects>
      <tilted>0</tilted></_>
    <_>
      <rects>
        <_>
          0 12 3 3 -1.</_>
        <_>
          0 13 3 1 3.</_></rects>
      <tilted>0</tilted></_>
    <_>
      <rects>
        <_>
          0 12 5 6 -1.</_>
        <_>
          0 15 5 3 2.</_></rects>
      <tilted>0</tilted></_>
    <_>
      <rects>
        <_>
          0 13 2 3 -1.</_>
        <_>
          0 14 2 1 3.</_></rects>
      <tilted>0</tilted></_>
    <_>
      <rects>
        <_>
          0 14 1 3 -1.</_>
        <_>
          0 15 1 1 3.</_></rects>
      <tilted>0</tilted></_>
    <_>
      <rects>
        <_>
          0 14 3 3 -1.</_>
        <_>
          0 15 3 1 3.</_></rects>
      <tilted>0</tilted></_>
    <_>
      <rects>
        <_>
          0 14 6 6 -1.</_>
        <_>
          0 16 6 2 3.</_></rects>
      <tilted>0</tilted></_>
    <_>
      <rects>
        <_>
          0 16 2 3 -1.</_>
        <_>
          0 17 2 1 3.</_></rects>
      <tilted>0</tilted></_>
    <_>
      <rects>
        <_>
          0 16 10 4 -1.</_>
        <_>
          0 16 5 2 2.</_>
        <_>
          5 18 5 2 2.</_></rects>
      <tilted>0</tilted></_>
    <_>
      <rects>
        <_>
          0 17 9 2 -1.</_>
        <_>
          3 17 3 2 3.</_></rects>
      <tilted>0</tilted></_>
    <_>
      <rects>
        <_>
          0 18 1 2 -1.</_>
        <_>
          0 19 1 1 2.</_></rects>
      <tilted>0</tilted></_>
    <_>
      <rects>
        <_>
          1 0 1 12 -1.</_>
        <_>
          1 6 1 6 2.</_></rects>
      <tilted>0</tilted></_>
    <_>
      <rects>
        <_>
          1 0 18 6 -1.</_>
        <_>
          7 0 6 6 3.</_></rects>
      <tilted>0</tilted></_>
    <_>
      <rects>
        <_>
          1 0 18 7 -1.</_>
        <_>
          7 0 6 7 3.</_></rects>
      <tilted>0</tilted></_>
    <_>
      <rects>
        <_>
          1 0 7 2 -1.</_>
        <_>
          1 1 7 1 2.</_></rects>
      <tilted>0</tilted></_>
    <_>
      <rects>
        <_>
          1 0 14 2 -1.</_>
        <_>
          1 1 14 1 2.</_></rects>
      <tilted>0</tilted></_>
    <_>
      <rects>
        <_>
          1 0 16 9 -1.</_>
        <_>
          1 3 16 3 3.</_></rects>
      <tilted>0</tilted></_>
    <_>
      <rects>
        <_>
          1 0 17 2 -1.</_>
        <_>
          1 1 17 1 2.</_></rects>
      <tilted>0</tilted></_>
    <_>
      <rects>
        <_>
          1 0 18 3 -1.</_>
        <_>
          1 1 18 1 3.</_></rects>
      <tilted>0</tilted></_>
    <_>
      <rects>
        <_>
          1 1 18 5 -1.</_>
        <_>
          7 1 6 5 3.</_></rects>
      <tilted>0</tilted></_>
    <_>
      <rects>
        <_>
          1 1 18 6 -1.</_>
        <_>
          7 1 6 6 3.</_></rects>
      <tilted>0</tilted></_>
    <_>
      <rects>
        <_>
          1 2 19 10 -1.</_>
        <_>
          1 7 19 5 2.</_></rects>
      <tilted>0</tilted></_>
    <_>
      <rects>
        <_>
          1 3 18 3 -1.</_>
        <_>
          7 3 6 3 3.</_></rects>
      <tilted>0</tilted></_>
    <_>
      <rects>
        <_>
          1 3 18 3 -1.</_>
        <_>
          1 4 18 1 3.</_></rects>
      <tilted>0</tilted></_>
    <_>
      <rects>
        <_>
          1 4 6 4 -1.</_>
        <_>
          1 6 6 2 2.</_></rects>
      <tilted>0</tilted></_>
    <_>
      <rects>
        <_>
          1 4 18 4 -1.</_>
        <_>
          1 6 18 2 2.</_></rects>
      <tilted>0</tilted></_>
    <_>
      <rects>
        <_>
          1 9 2 3 -1.</_>
        <_>
          1 10 2 1 3.</_></rects>
      <tilted>0</tilted></_>
    <_>
      <rects>
        <_>
          1 10 2 1 -1.</_>
        <_>
          2 10 1 1 2.</_></rects>
      <tilted>0</tilted></_>
    <_>
      <rects>
        <_>
          1 11 12 3 -1.</_>
        <_>
          1 12 12 1 3.</_></rects>
      <tilted>0</tilted></_>
    <_>
      <rects>
        <_>
          1 11 13 3 -1.</_>
        <_>
          1 12 13 1 3.</_></rects>
      <tilted>0</tilted></_>
    <_>
      <rects>
        <_>
          1 12 3 2 -1.</_>
        <_>
          1 13 3 1 2.</_></rects>
      <tilted>0</tilted></_>
    <_>
      <rects>
        <_>
          1 16 6 2 -1.</_>
        <_>
          3 16 2 2 3.</_></rects>
      <tilted>0</tilted></_>
    <_>
      <rects>
        <_>
          1 16 3 3 -1.</_>
        <_>
          1 17 3 1 3.</_></rects>
      <tilted>0</tilted></_>
    <_>
      <rects>
        <_>
          1 16 6 4 -1.</_>
        <_>
          1 16 3 2 2.</_>
        <_>
          4 18 3 2 2.</_></rects>
      <tilted>0</tilted></_>
    <_>
      <rects>
        <_>
          2 0 2 12 -1.</_>
        <_>
          2 0 1 6 2.</_>
        <_>
          3 6 1 6 2.</_></rects>
      <tilted>0</tilted></_>
    <_>
      <rects>
        <_>
          2 0 2 3 -1.</_>
        <_>
          2 1 2 1 3.</_></rects>
      <tilted>0</tilted></_>
    <_>
      <rects>
        <_>
          2 0 4 3 -1.</_>
        <_>
          2 1 4 1 3.</_></rects>
      <tilted>0</tilted></_>
    <_>
      <rects>
        <_>
          2 0 5 2 -1.</_>
        <_>
          2 1 5 1 2.</_></rects>
      <tilted>0</tilted></_>
    <_>
      <rects>
        <_>
          2 0 15 7 -1.</_>
        <_>
          7 0 5 7 3.</_></rects>
      <tilted>0</tilted></_>
    <_>
      <rects>
        <_>
          2 0 15 10 -1.</_>
        <_>
          7 0 5 10 3.</_></rects>
      <tilted>0</tilted></_>
    <_>
      <rects>
        <_>
          2 0 10 9 -1.</_>
        <_>
          2 3 10 3 3.</_></rects>
      <tilted>0</tilted></_>
    <_>
      <rects>
        <_>
          2 0 15 9 -1.</_>
        <_>
          2 3 15 3 3.</_></rects>
      <tilted>0</tilted></_>
    <_>
      <rects>
        <_>
          2 0 16 9 -1.</_>
        <_>
          2 3 16 3 3.</_></rects>
      <tilted>0</tilted></_>
    <_>
      <rects>
        <_>
          2 0 18 6 -1.</_>
        <_>
          2 2 18 2 3.</_></rects>
      <tilted>0</tilted></_>
    <_>
      <rects>
        <_>
          2 1 2 3 -1.</_>
        <_>
          2 2 2 1 3.</_></rects>
      <tilted>0</tilted></_>
    <_>
      <rects>
        <_>
          2 1 15 4 -1.</_>
        <_>
          7 1 5 4 3.</_></rects>
      <tilted>0</tilted></_>
    <_>
      <rects>
        <_>
          2 2 2 10 -1.</_>
        <_>
          2 7 2 5 2.</_></rects>
      <tilted>0</tilted></_>
    <_>
      <rects>
        <_>
          2 3 1 3 -1.</_>
        <_>
          2 4 1 1 3.</_></rects>
      <tilted>0</tilted></_>
    <_>
      <rects>
        <_>
          2 3 2 8 -1.</_>
        <_>
          2 7 2 4 2.</_></rects>
      <tilted>0</tilted></_>
    <_>
      <rects>
        <_>
          2 3 3 12 -1.</_>
        <_>
          2 7 3 4 3.</_></rects>
      <tilted>0</tilted></_>
    <_>
      <rects>
        <_>
          2 3 4 3 -1.</_>
        <_>
          2 4 4 1 3.</_></rects>
      <tilted>0</tilted></_>
    <_>
      <rects>
        <_>
          2 3 10 2 -1.</_>
        <_>
          7 3 5 2 2.</_></rects>
      <tilted>0</tilted></_>
    <_>
      <rects>
        <_>
          2 3 15 2 -1.</_>
        <_>
          7 3 5 2 3.</_></rects>
      <tilted>0</tilted></_>
    <_>
      <rects>
        <_>
          2 14 10 3 -1.</_>
        <_>
          2 15 10 1 3.</_></rects>
      <tilted>0</tilted></_>
    <_>
      <rects>
        <_>
          2 14 13 3 -1.</_>
        <_>
          2 15 13 1 3.</_></rects>
      <tilted>0</tilted></_>
    <_>
      <rects>
        <_>
          2 15 17 3 -1.</_>
        <_>
          2 16 17 1 3.</_></rects>
      <tilted>0</tilted></_>
    <_>
      <rects>
        <_>
          2 16 1 2 -1.</_>
        <_>
          2 17 1 1 2.</_></rects>
      <tilted>0</tilted></_>
    <_>
      <rects>
        <_>
          2 16 6 4 -1.</_>
        <_>
          2 16 3 2 2.</_>
        <_>
          5 18 3 2 2.</_></rects>
      <tilted>0</tilted></_>
    <_>
      <rects>
        <_>
          3 0 8 7 -1.</_>
        <_>
          7 0 4 7 2.</_></rects>
      <tilted>0</tilted></_>
    <_>
      <rects>
        <_>
          3 0 6 2 -1.</_>
        <_>
          3 1 6 1 2.</_></rects>
      <tilted>0</tilted></_>
    <_>
      <rects>
        <_>
          3 0 15 2 -1.</_>
        <_>
          3 1 15 1 2.</_></rects>
      <tilted>0</tilted></_>
    <_>
      <rects>
        <_>
          3 0 15 9 -1.</_>
        <_>
          3 3 15 3 3.</_></rects>
      <tilted>0</tilted></_>
    <_>
      <rects>
        <_>
          3 1 2 12 -1.</_>
        <_>
          3 7 2 6 2.</_></rects>
      <tilted>0</tilted></_>
    <_>
      <rects>
        <_>
          3 1 8 6 -1.</_>
        <_>
          7 1 4 6 2.</_></rects>
      <tilted>0</tilted></_>
    <_>
      <rects>
        <_>
          3 1 16 3 -1.</_>
        <_>
          3 2 16 1 3.</_></rects>
      <tilted>0</tilted></_>
    <_>
      <rects>
        <_>
          3 3 2 3 -1.</_>
        <_>
          3 4 2 1 3.</_></rects>
      <tilted>0</tilted></_>
    <_>
      <rects>
        <_>
          3 7 7 12 -1.</_>
        <_>
          3 13 7 6 2.</_></rects>
      <tilted>0</tilted></_>
    <_>
      <rects>
        <_>
          3 11 10 4 -1.</_>
        <_>
          3 11 5 2 2.</_>
        <_>
          8 13 5 2 2.</_></rects>
      <tilted>0</tilted></_>
    <_>
      <rects>
        <_>
          3 11 9 3 -1.</_>
        <_>
          3 12 9 1 3.</_></rects>
      <tilted>0</tilted></_>
    <_>
      <rects>
        <_>
          3 13 12 3 -1.</_>
        <_>
          3 14 12 1 3.</_></rects>
      <tilted>0</tilted></_>
    <_>
      <rects>
        <_>
          3 14 10 3 -1.</_>
        <_>
          3 15 10 1 3.</_></rects>
      <tilted>0</tilted></_>
    <_>
      <rects>
        <_>
          3 14 11 3 -1.</_>
        <_>
          3 15 11 1 3.</_></rects>
      <tilted>0</tilted></_>
    <_>
      <rects>
        <_>
          3 15 12 2 -1.</_>
        <_>
          3 16 12 1 2.</_></rects>
      <tilted>0</tilted></_>
    <_>
      <rects>
        <_>
          3 16 13 3 -1.</_>
        <_>
          3 17 13 1 3.</_></rects>
      <tilted>0</tilted></_>
    <_>
      <rects>
        <_>
          3 17 1 3 -1.</_>
        <_>
          3 18 1 1 3.</_></rects>
      <tilted>0</tilted></_>
    <_>
      <rects>
        <_>
          4 0 1 9 -1.</_>
        <_>
          4 3 1 3 3.</_></rects>
      <tilted>0</tilted></_>
    <_>
      <rects>
        <_>
          4 0 5 6 -1.</_>
        <_>
          4 3 5 3 2.</_></rects>
      <tilted>0</tilted></_>
    <_>
      <rects>
        <_>
          4 0 16 3 -1.</_>
        <_>
          4 1 16 1 3.</_></rects>
      <tilted>0</tilted></_>
    <_>
      <rects>
        <_>
          4 1 6 4 -1.</_>
        <_>
          7 1 3 4 2.</_></rects>
      <tilted>0</tilted></_>
    <_>
      <rects>
        <_>
          4 1 12 5 -1.</_>
        <_>
          8 1 4 5 3.</_></rects>
      <tilted>0</tilted></_>
    <_>
      <rects>
        <_>
          4 1 12 6 -1.</_>
        <_>
          8 1 4 6 3.</_></rects>
      <tilted>0</tilted></_>
    <_>
      <rects>
        <_>
          4 1 15 5 -1.</_>
        <_>
          9 1 5 5 3.</_></rects>
      <tilted>0</tilted></_>
    <_>
      <rects>
        <_>
          4 4 1 12 -1.</_>
        <_>
          4 8 1 4 3.</_></rects>
      <tilted>0</tilted></_>
    <_>
      <rects>
        <_>
          4 13 8 3 -1.</_>
        <_>
          4 14 8 1 3.</_></rects>
      <tilted>0</tilted></_>
    <_>
      <rects>
        <_>
          4 14 12 1 -1.</_>
        <_>
          8 14 4 1 3.</_></rects>
      <tilted>0</tilted></_>
    <_>
      <rects>
        <_>
          4 14 14 6 -1.</_>
        <_>
          4 14 7 3 2.</_>
        <_>
          11 17 7 3 2.</_></rects>
      <tilted>0</tilted></_>
    <_>
      <rects>
        <_>
          4 14 13 3 -1.</_>
        <_>
          4 15 13 1 3.</_></rects>
      <tilted>0</tilted></_>
    <_>
      <rects>
        <_>
          4 15 10 3 -1.</_>
        <_>
          4 16 10 1 3.</_></rects>
      <tilted>0</tilted></_>
    <_>
      <rects>
        <_>
          5 0 13 2 -1.</_>
        <_>
          5 1 13 1 2.</_></rects>
      <tilted>0</tilted></_>
    <_>
      <rects>
        <_>
          5 1 13 2 -1.</_>
        <_>
          5 2 13 1 2.</_></rects>
      <tilted>0</tilted></_>
    <_>
      <rects>
        <_>
          5 14 10 3 -1.</_>
        <_>
          5 15 10 1 3.</_></rects>
      <tilted>0</tilted></_>
    <_>
      <rects>
        <_>
          5 14 12 3 -1.</_>
        <_>
          5 15 12 1 3.</_></rects>
      <tilted>0</tilted></_>
    <_>
      <rects>
        <_>
          5 15 11 3 -1.</_>
        <_>
          5 16 11 1 3.</_></rects>
      <tilted>0</tilted></_>
    <_>
      <rects>
        <_>
          5 19 3 1 -1.</_>
        <_>
          6 19 1 1 3.</_></rects>
      <tilted>0</tilted></_>
    <_>
      <rects>
        <_>
          5 19 15 1 -1.</_>
        <_>
          10 19 5 1 3.</_></rects>
      <tilted>0</tilted></_>
    <_>
      <rects>
        <_>
          6 0 8 4 -1.</_>
        <_>
          6 2 8 2 2.</_></rects>
      <tilted>0</tilted></_>
    <_>
      <rects>
        <_>
          6 0 9 4 -1.</_>
        <_>
          6 2 9 2 2.</_></rects>
      <tilted>0</tilted></_>
    <_>
      <rects>
        <_>
          6 0 13 2 -1.</_>
        <_>
          6 1 13 1 2.</_></rects>
      <tilted>0</tilted></_>
    <_>
      <rects>
        <_>
          6 2 4 4 -1.</_>
        <_>
          8 2 2 4 2.</_></rects>
      <tilted>0</tilted></_>
    <_>
      <rects>
        <_>
          6 2 6 6 -1.</_>
        <_>
          8 2 2 6 3.</_></rects>
      <tilted>0</tilted></_>
    <_>
      <rects>
        <_>
          6 2 9 6 -1.</_>
        <_>
          9 2 3 6 3.</_></rects>
      <tilted>0</tilted></_>
    <_>
      <rects>
        <_>
          6 5 4 3 -1.</_>
        <_>
          6 6 4 1 3.</_></rects>
      <tilted>0</tilted></_>
    <_>
      <rects>
        <_>
          6 14 3 3 -1.</_>
        <_>
          6 15 3 1 3.</_></rects>
      <tilted>0</tilted></_>
    <_>
      <rects>
        <_>
          6 14 8 3 -1.</_>
        <_>
          6 15 8 1 3.</_></rects>
      <tilted>0</tilted></_>
    <_>
      <rects>
        <_>
          6 15 6 3 -1.</_>
        <_>
          6 16 6 1 3.</_></rects>
      <tilted>0</tilted></_>
    <_>
      <rects>
        <_>
          6 15 7 3 -1.</_>
        <_>
          6 16 7 1 3.</_></rects>
      <tilted>0</tilted></_>
    <_>
      <rects>
        <_>
          6 15 8 3 -1.</_>
        <_>
          6 16 8 1 3.</_></rects>
      <tilted>0</tilted></_>
    <_>
      <rects>
        <_>
          6 16 3 4 -1.</_>
        <_>
          6 18 3 2 2.</_></rects>
      <tilted>0</tilted></_>
    <_>
      <rects>
        <_>
          6 16 4 4 -1.</_>
        <_>
          6 18 4 2 2.</_></rects>
      <tilted>0</tilted></_>
    <_>
      <rects>
        <_>
          6 16 5 3 -1.</_>
        <_>
          6 17 5 1 3.</_></rects>
      <tilted>0</tilted></_>
    <_>
      <rects>
        <_>
          6 16 7 3 -1.</_>
        <_>
          6 17 7 1 3.</_></rects>
      <tilted>0</tilted></_>
    <_>
      <rects>
        <_>
          6 16 8 2 -1.</_>
        <_>
          6 17 8 1 2.</_></rects>
      <tilted>0</tilted></_>
    <_>
      <rects>
        <_>
          6 16 9 3 -1.</_>
        <_>
          6 17 9 1 3.</_></rects>
      <tilted>0</tilted></_>
    <_>
      <rects>
        <_>
          7 0 5 20 -1.</_>
        <_>
          7 10 5 10 2.</_></rects>
      <tilted>0</tilted></_>
    <_>
      <rects>
        <_>
          7 0 8 4 -1.</_>
        <_>
          7 2 8 2 2.</_></rects>
      <tilted>0</tilted></_>
    <_>
      <rects>
        <_>
          7 2 6 10 -1.</_>
        <_>
          9 2 2 10 3.</_></rects>
      <tilted>0</tilted></_>
    <_>
      <rects>
        <_>
          7 3 4 2 -1.</_>
        <_>
          9 3 2 2 2.</_></rects>
      <tilted>0</tilted></_>
    <_>
      <rects>
        <_>
          7 3 6 8 -1.</_>
        <_>
          9 3 2 8 3.</_></rects>
      <tilted>0</tilted></_>
    <_>
      <rects>
        <_>
          7 3 6 14 -1.</_>
        <_>
          9 3 2 14 3.</_></rects>
      <tilted>0</tilted></_>
    <_>
      <rects>
        <_>
          7 3 12 3 -1.</_>
        <_>
          13 3 6 3 2.</_></rects>
      <tilted>0</tilted></_>
    <_>
      <rects>
        <_>
          7 4 12 9 -1.</_>
        <_>
          7 7 12 3 3.</_></rects>
      <tilted>0</tilted></_>
    <_>
      <rects>
        <_>
          7 13 6 3 -1.</_>
        <_>
          7 14 6 1 3.</_></rects>
      <tilted>0</tilted></_>
    <_>
      <rects>
        <_>
          7 14 4 3 -1.</_>
        <_>
          7 15 4 1 3.</_></rects>
      <tilted>0</tilted></_>
    <_>
      <rects>
        <_>
          7 14 6 3 -1.</_>
        <_>
          7 15 6 1 3.</_></rects>
      <tilted>0</tilted></_>
    <_>
      <rects>
        <_>
          7 15 1 3 -1.</_>
        <_>
          7 16 1 1 3.</_></rects>
      <tilted>0</tilted></_>
    <_>
      <rects>
        <_>
          7 15 4 3 -1.</_>
        <_>
          7 16 4 1 3.</_></rects>
      <tilted>0</tilted></_>
    <_>
      <rects>
        <_>
          7 16 5 3 -1.</_>
        <_>
          7 17 5 1 3.</_></rects>
      <tilted>0</tilted></_>
    <_>
      <rects>
        <_>
          7 16 8 3 -1.</_>
        <_>
          7 17 8 1 3.</_></rects>
      <tilted>0</tilted></_>
    <_>
      <rects>
        <_>
          8 0 4 4 -1.</_>
        <_>
          8 2 4 2 2.</_></rects>
      <tilted>0</tilted></_>
    <_>
      <rects>
        <_>
          8 0 9 2 -1.</_>
        <_>
          8 1 9 1 2.</_></rects>
      <tilted>0</tilted></_>
    <_>
      <rects>
        <_>
          8 1 8 5 -1.</_>
        <_>
          12 1 4 5 2.</_></rects>
      <tilted>0</tilted></_>
    <_>
      <rects>
        <_>
          8 2 11 8 -1.</_>
        <_>
          8 6 11 4 2.</_></rects>
      <tilted>0</tilted></_>
    <_>
      <rects>
        <_>
          8 3 4 4 -1.</_>
        <_>
          10 3 2 4 2.</_></rects>
      <tilted>0</tilted></_>
    <_>
      <rects>
        <_>
          8 5 3 3 -1.</_>
        <_>
          8 6 3 1 3.</_></rects>
      <tilted>0</tilted></_>
    <_>
      <rects>
        <_>
          8 6 1 3 -1.</_>
        <_>
          8 7 1 1 3.</_></rects>
      <tilted>0</tilted></_>
    <_>
      <rects>
        <_>
          8 7 1 2 -1.</_>
        <_>
          8 8 1 1 2.</_></rects>
      <tilted>0</tilted></_>
    <_>
      <rects>
        <_>
          8 11 6 6 -1.</_>
        <_>
          8 13 6 2 3.</_></rects>
      <tilted>0</tilted></_>
    <_>
      <rects>
        <_>
          8 14 5 3 -1.</_>
        <_>
          8 15 5 1 3.</_></rects>
      <tilted>0</tilted></_>
    <_>
      <rects>
        <_>
          8 15 3 3 -1.</_>
        <_>
          8 16 3 1 3.</_></rects>
      <tilted>0</tilted></_>
    <_>
      <rects>
        <_>
          8 15 6 3 -1.</_>
        <_>
          8 16 6 1 3.</_></rects>
      <tilted>0</tilted></_>
    <_>
      <rects>
        <_>
          8 16 4 3 -1.</_>
        <_>
          8 17 4 1 3.</_></rects>
      <tilted>0</tilted></_>
    <_>
      <rects>
        <_>
          8 18 3 2 -1.</_>
        <_>
          9 18 1 2 3.</_></rects>
      <tilted>0</tilted></_>
    <_>
      <rects>
        <_>
          9 15 3 3 -1.</_>
        <_>
          9 16 3 1 3.</_></rects>
      <tilted>0</tilted></_>
    <_>
      <rects>
        <_>
          9 16 4 3 -1.</_>
        <_>
          9 17 4 1 3.</_></rects>
      <tilted>0</tilted></_>
    <_>
      <rects>
        <_>
          10 0 6 1 -1.</_>
        <_>
          12 0 2 1 3.</_></rects>
      <tilted>0</tilted></_>
    <_>
      <rects>
        <_>
          10 0 4 6 -1.</_>
        <_>
          10 2 4 2 3.</_></rects>
      <tilted>0</tilted></_>
    <_>
      <rects>
        <_>
          10 1 4 5 -1.</_>
        <_>
          12 1 2 5 2.</_></rects>
      <tilted>0</tilted></_>
    <_>
      <rects>
        <_>
          10 5 1 3 -1.</_>
        <_>
          10 6 1 1 3.</_></rects>
      <tilted>0</tilted></_>
    <_>
      <rects>
        <_>
          10 6 2 2 -1.</_>
        <_>
          10 7 2 1 2.</_></rects>
      <tilted>0</tilted></_>
    <_>
      <rects>
        <_>
          10 9 10 10 -1.</_>
        <_>
          10 14 10 5 2.</_></rects>
      <tilted>0</tilted></_>
    <_>
      <rects>
        <_>
          10 11 8 4 -1.</_>
        <_>
          10 11 4 2 2.</_>
        <_>
          14 13 4 2 2.</_></rects>
      <tilted>0</tilted></_>
    <_>
      <rects>
        <_>
          10 15 1 3 -1.</_>
        <_>
          10 16 1 1 3.</_></rects>
      <tilted>0</tilted></_>
    <_>
      <rects>
        <_>
          10 15 5 3 -1.</_>
        <_>
          10 16 5 1 3.</_></rects>
      <tilted>0</tilted></_>
    <_>
      <rects>
        <_>
          10 16 10 4 -1.</_>
        <_>
          10 16 5 2 2.</_>
        <_>
          15 18 5 2 2.</_></rects>
      <tilted>0</tilted></_>
    <_>
      <rects>
        <_>
          11 6 6 6 -1.</_>
        <_>
          11 8 6 2 3.</_></rects>
      <tilted>0</tilted></_>
    <_>
      <rects>
        <_>
          11 8 9 12 -1.</_>
        <_>
          14 8 3 12 3.</_></rects>
      <tilted>0</tilted></_>
    <_>
      <rects>
        <_>
          11 16 1 3 -1.</_>
        <_>
          11 17 1 1 3.</_></rects>
      <tilted>0</tilted></_>
    <_>
      <rects>
        <_>
          11 16 5 4 -1.</_>
        <_>
          11 18 5 2 2.</_></rects>
      <tilted>0</tilted></_>
    <_>
      <rects>
        <_>
          12 0 3 1 -1.</_>
        <_>
          13 0 1 1 3.</_></rects>
      <tilted>0</tilted></_>
    <_>
      <rects>
        <_>
          12 0 8 4 -1.</_>
        <_>
          12 0 4 2 2.</_>
        <_>
          16 2 4 2 2.</_></rects>
      <tilted>0</tilted></_>
    <_>
      <rects>
        <_>
          12 0 7 2 -1.</_>
        <_>
          12 1 7 1 2.</_></rects>
      <tilted>0</tilted></_>
    <_>
      <rects>
        <_>
          12 1 7 18 -1.</_>
        <_>
          12 7 7 6 3.</_></rects>
      <tilted>0</tilted></_>
    <_>
      <rects>
        <_>
          12 16 3 4 -1.</_>
        <_>
          12 18 3 2 2.</_></rects>
      <tilted>0</tilted></_>
    <_>
      <rects>
        <_>
          12 16 8 4 -1.</_>
        <_>
          12 16 4 2 2.</_>
        <_>
          16 18 4 2 2.</_></rects>
      <tilted>0</tilted></_>
    <_>
      <rects>
        <_>
          13 3 6 12 -1.</_>
        <_>
          13 7 6 4 3.</_></rects>
      <tilted>0</tilted></_>
    <_>
      <rects>
        <_>
          13 16 4 4 -1.</_>
        <_>
          13 16 2 2 2.</_>
        <_>
          15 18 2 2 2.</_></rects>
      <tilted>0</tilted></_>
    <_>
      <rects>
        <_>
          13 18 7 2 -1.</_>
        <_>
          13 19 7 1 2.</_></rects>
      <tilted>0</tilted></_>
    <_>
      <rects>
        <_>
          14 0 5 2 -1.</_>
        <_>
          14 1 5 1 2.</_></rects>
      <tilted>0</tilted></_>
    <_>
      <rects>
        <_>
          14 2 4 3 -1.</_>
        <_>
          14 3 4 1 3.</_></rects>
      <tilted>0</tilted></_>
    <_>
      <rects>
        <_>
          14 3 5 6 -1.</_>
        <_>
          14 6 5 3 2.</_></rects>
      <tilted>0</tilted></_>
    <_>
      <rects>
        <_>
          14 3 5 8 -1.</_>
        <_>
          14 7 5 4 2.</_></rects>
      <tilted>0</tilted></_>
    <_>
      <rects>
        <_>
          14 3 6 3 -1.</_>
        <_>
          14 4 6 1 3.</_></rects>
      <tilted>0</tilted></_>
    <_>
      <rects>
        <_>
          14 10 6 1 -1.</_>
        <_>
          16 10 2 1 3.</_></rects>
      <tilted>0</tilted></_>
    <_>
      <rects>
        <_>
          14 10 2 8 -1.</_>
        <_>
          14 14 2 4 2.</_></rects>
      <tilted>0</tilted></_>
    <_>
      <rects>
        <_>
          14 14 1 6 -1.</_>
        <_>
          14 17 1 3 2.</_></rects>
      <tilted>0</tilted></_>
    <_>
      <rects>
        <_>
          14 17 6 3 -1.</_>
        <_>
          14 18 6 1 3.</_></rects>
      <tilted>0</tilted></_>
    <_>
      <rects>
        <_>
          15 1 2 3 -1.</_>
        <_>
          15 2 2 1 3.</_></rects>
      <tilted>0</tilted></_>
    <_>
      <rects>
        <_>
          15 2 3 10 -1.</_>
        <_>
          15 7 3 5 2.</_></rects>
      <tilted>0</tilted></_>
    <_>
      <rects>
        <_>
          15 3 1 8 -1.</_>
        <_>
          15 7 1 4 2.</_></rects>
      <tilted>0</tilted></_>
    <_>
      <rects>
        <_>
          15 4 4 4 -1.</_>
        <_>
          15 6 4 2 2.</_></rects>
      <tilted>0</tilted></_>
    <_>
      <rects>
        <_>
          15 9 3 3 -1.</_>
        <_>
          16 9 1 3 3.</_></rects>
      <tilted>0</tilted></_>
    <_>
      <rects>
        <_>
          16 1 2 3 -1.</_>
        <_>
          16 2 2 1 3.</_></rects>
      <tilted>0</tilted></_>
    <_>
      <rects>
        <_>
          16 2 3 10 -1.</_>
        <_>
          16 7 3 5 2.</_></rects>
      <tilted>0</tilted></_>
    <_>
      <rects>
        <_>
          16 3 4 8 -1.</_>
        <_>
          16 3 2 4 2.</_>
        <_>
          18 7 2 4 2.</_></rects>
      <tilted>0</tilted></_>
    <_>
      <rects>
        <_>
          16 3 4 10 -1.</_>
        <_>
          16 3 2 5 2.</_>
        <_>
          18 8 2 5 2.</_></rects>
      <tilted>0</tilted></_>
    <_>
      <rects>
        <_>
          16 5 4 10 -1.</_>
        <_>
          16 5 2 5 2.</_>
        <_>
          18 10 2 5 2.</_></rects>
      <tilted>0</tilted></_>
    <_>
      <rects>
        <_>
          16 8 4 12 -1.</_>
        <_>
          18 8 2 12 2.</_></rects>
      <tilted>0</tilted></_>
    <_>
      <rects>
        <_>
          16 11 4 9 -1.</_>
        <_>
          18 11 2 9 2.</_></rects>
      <tilted>0</tilted></_>
    <_>
      <rects>
        <_>
          16 15 2 3 -1.</_>
        <_>
          16 16 2 1 3.</_></rects>
      <tilted>0</tilted></_>
    <_>
      <rects>
        <_>
          16 17 3 3 -1.</_>
        <_>
          16 18 3 1 3.</_></rects>
      <tilted>0</tilted></_>
    <_>
      <rects>
        <_>
          16 18 4 2 -1.</_>
        <_>
          16 19 4 1 2.</_></rects>
      <tilted>0</tilted></_>
    <_>
      <rects>
        <_>
          17 0 2 12 -1.</_>
        <_>
          17 6 2 6 2.</_></rects>
      <tilted>0</tilted></_>
    <_>
      <rects>
        <_>
          17 10 3 3 -1.</_>
        <_>
          17 11 3 1 3.</_></rects>
      <tilted>0</tilted></_>
    <_>
      <rects>
        <_>
          17 14 3 3 -1.</_>
        <_>
          17 15 3 1 3.</_></rects>
      <tilted>0</tilted></_>
    <_>
      <rects>
        <_>
          17 15 3 3 -1.</_>
        <_>
          17 16 3 1 3.</_></rects>
      <tilted>0</tilted></_>
    <_>
      <rects>
        <_>
          17 16 2 3 -1.</_>
        <_>
          17 17 2 1 3.</_></rects>
      <tilted>0</tilted></_>
    <_>
      <rects>
        <_>
          17 16 3 3 -1.</_>
        <_>
          17 17 3 1 3.</_></rects>
      <tilted>0</tilted></_>
    <_>
      <rects>
        <_>
          17 17 1 2 -1.</_>
        <_>
          17 18 1 1 2.</_></rects>
      <tilted>0</tilted></_>
    <_>
      <rects>
        <_>
          18 1 2 8 -1.</_>
        <_>
          18 5 2 4 2.</_></rects>
      <tilted>0</tilted></_>
    <_>
      <rects>
        <_>
          18 6 2 13 -1.</_>
        <_>
          19 6 1 13 2.</_></rects>
      <tilted>0</tilted></_>
    <_>
      <rects>
        <_>
          18 8 1 3 -1.</_>
        <_>
          18 9 1 1 3.</_></rects>
      <tilted>0</tilted></_>
    <_>
      <rects>
        <_>
          18 8 2 12 -1.</_>
        <_>
          19 8 1 12 2.</_></rects>
      <tilted>0</tilted></_>
    <_>
      <rects>
        <_>
          18 9 1 3 -1.</_>
        <_>
          18 10 1 1 3.</_></rects>
      <tilted>0</tilted></_>
    <_>
      <rects>
        <_>
          18 9 2 3 -1.</_>
        <_>
          18 10 2 1 3.</_></rects>
      <tilted>0</tilted></_>
    <_>
      <rects>
        <_>
          18 10 2 3 -1.</_>
        <_>
          18 11 2 1 3.</_></rects>
      <tilted>0</tilted></_>
    <_>
      <rects>
        <_>
          18 11 2 2 -1.</_>
        <_>
          18 12 2 1 2.</_></rects>
      <tilted>0</tilted></_>
    <_>
      <rects>
        <_>
          18 12 1 3 -1.</_>
        <_>
          18 13 1 1 3.</_></rects>
      <tilted>0</tilted></_>
    <_>
      <rects>
        <_>
          18 14 2 3 -1.</_>
        <_>
          18 15 2 1 3.</_></rects>
      <tilted>0</tilted></_>
    <_>
      <rects>
        <_>
          18 16 1 2 -1.</_>
        <_>
          18 17 1 1 2.</_></rects>
      <tilted>0</tilted></_>
    <_>
      <rects>
        <_>
          19 5 1 3 -1.</_>
        <_>
          19 6 1 1 3.</_></rects>
      <tilted>0</tilted></_>
    <_>
      <rects>
        <_>
          19 11 1 3 -1.</_>
        <_>
          19 12 1 1 3.</_></rects>
      <tilted>0</tilted></_>
    <_>
      <rects>
        <_>
          19 12 1 2 -1.</_>
        <_>
          19 13 1 1 2.</_></rects>
      <tilted>0</tilted></_></features></cascade>
</opencv_storage>
